digraph Tree {
node [shape=box, style="filled, rounded", color="black", fontname="helvetica"] ;
edge [fontname="helvetica"] ;
0 [label="flavanoids <= 1.575\nentropy = 1.582\nsamples = 124\nvalue = [39, 45, 40]\nclass = 1", fillcolor="#f3fdf8"] ;
1 [label="hue <= 0.935\nentropy = 0.607\nsamples = 47\nvalue = [0, 7, 40]\nclass = 2", fillcolor="#975cea"] ;
0 -> 1 [labeldistance=2.5, labelangle=45, headlabel="True"] ;
2 [label="entropy = 0.0\nsamples = 39\nvalue = [0, 0, 39]\nclass = 2", fillcolor="#8139e5"] ;
1 -> 2 ;
3 [label="color_intensity <= 5.815\nentropy = 0.544\nsamples = 8\nvalue = [0, 7, 1]\nclass = 1", fillcolor="#55e993"] ;
1 -> 3 ;
4 [label="entropy = 0.0\nsamples = 7\nvalue = [0, 7, 0]\nclass = 1", fillcolor="#39e581"] ;
3 -> 4 ;
5 [label="entropy = 0.0\nsamples = 1\nvalue = [0, 0, 1]\nclass = 2", fillcolor="#8139e5"] ;
3 -> 5 ;
6 [label="proline <= 724.5\nentropy = 1.0\nsamples = 77\nvalue = [39, 38, 0]\nclass = 0", fillcolor="#fefcfa"] ;
0 -> 6 [labeldistance=2.5, labelangle=-45, headlabel="False"] ;
7 [label="entropy = 0.0\nsamples = 36\nvalue = [0, 36, 0]\nclass = 1", fillcolor="#39e581"] ;
6 -> 7 ;
8 [label="alcohol <= 12.63\nentropy = 0.281\nsamples = 41\nvalue = [39, 2, 0]\nclass = 0", fillcolor="#e68743"] ;
6 -> 8 ;
9 [label="entropy = 0.0\nsamples = 2\nvalue = [0, 2, 0]\nclass = 1", fillcolor="#39e581"] ;
8 -> 9 ;
10 [label="entropy = 0.0\nsamples = 39\nvalue = [39, 0, 0]\nclass = 0", fillcolor="#e58139"] ;
8 -> 10 ;
}