digraph Tree {
node [shape=box, style="filled, rounded", color="black", fontname="helvetica"] ;
edge [fontname="helvetica"] ;
0 [label="proline <= 755.0\ngini = 0.657\nsamples = 124\nvalue = [38, 51, 35]\nclass = 1", fillcolor="#e1fbec"] ;
1 [label="od280/od315_of_diluted_wines <= 2.19\ngini = 0.49\nsamples = 80\nvalue = [1, 48, 31]\nclass = 1", fillcolor="#baf6d3"] ;
0 -> 1 [labeldistance=2.5, labelangle=45, headlabel="True"] ;
2 [label="hue <= 0.935\ngini = 0.245\nsamples = 35\nvalue = [0, 5, 30]\nclass = 2", fillcolor="#965ae9"] ;
1 -> 2 ;
3 [label="flavanoids <= 1.58\ngini = 0.064\nsamples = 30\nvalue = [0, 1, 29]\nclass = 2", fillcolor="#8540e6"] ;
2 -> 3 ;
4 [label="gini = 0.0\nsamples = 29\nvalue = [0, 0, 29]\nclass = 2", fillcolor="#8139e5"] ;
3 -> 4 ;
5 [label="gini = 0.0\nsamples = 1\nvalue = [0, 1, 0]\nclass = 1", fillcolor="#39e581"] ;
3 -> 5 ;
6 [label="alcohol <= 13.515\ngini = 0.32\nsamples = 5\nvalue = [0, 4, 1]\nclass = 1", fillcolor="#6aeca0"] ;
2 -> 6 ;
7 [label="gini = 0.0\nsamples = 4\nvalue = [0, 4, 0]\nclass = 1", fillcolor="#39e581"] ;
6 -> 7 ;
8 [label="gini = 0.0\nsamples = 1\nvalue = [0, 0, 1]\nclass = 2", fillcolor="#8139e5"] ;
6 -> 8 ;
9 [label="flavanoids <= 0.745\ngini = 0.086\nsamples = 45\nvalue = [1, 43, 1]\nclass = 1", fillcolor="#42e687"] ;
1 -> 9 ;
10 [label="gini = 0.0\nsamples = 1\nvalue = [0, 0, 1]\nclass = 2", fillcolor="#8139e5"] ;
9 -> 10 ;
11 [label="proline <= 724.5\ngini = 0.044\nsamples = 44\nvalue = [1, 43, 0]\nclass = 1", fillcolor="#3ee684"] ;
9 -> 11 ;
12 [label="gini = 0.0\nsamples = 42\nvalue = [0, 42, 0]\nclass = 1", fillcolor="#39e581"] ;
11 -> 12 ;
13 [label="proanthocyanins <= 2.29\ngini = 0.5\nsamples = 2\nvalue = [1, 1, 0]\nclass = 0", fillcolor="#ffffff"] ;
11 -> 13 ;
14 [label="gini = 0.0\nsamples = 1\nvalue = [1, 0, 0]\nclass = 0", fillcolor="#e58139"] ;
13 -> 14 ;
15 [label="gini = 0.0\nsamples = 1\nvalue = [0, 1, 0]\nclass = 1", fillcolor="#39e581"] ;
13 -> 15 ;
16 [label="flavanoids <= 2.3\ngini = 0.28\nsamples = 44\nvalue = [37, 3, 4]\nclass = 0", fillcolor="#ea975c"] ;
0 -> 16 [labeldistance=2.5, labelangle=-45, headlabel="False"] ;
17 [label="hue <= 0.803\ngini = 0.444\nsamples = 6\nvalue = [0, 2, 4]\nclass = 2", fillcolor="#c09cf2"] ;
16 -> 17 ;
18 [label="gini = 0.0\nsamples = 4\nvalue = [0, 0, 4]\nclass = 2", fillcolor="#8139e5"] ;
17 -> 18 ;
19 [label="gini = 0.0\nsamples = 2\nvalue = [0, 2, 0]\nclass = 1", fillcolor="#39e581"] ;
17 -> 19 ;
20 [label="alcalinity_of_ash <= 27.5\ngini = 0.051\nsamples = 38\nvalue = [37, 1, 0]\nclass = 0", fillcolor="#e6843e"] ;
16 -> 20 ;
21 [label="gini = 0.0\nsamples = 37\nvalue = [37, 0, 0]\nclass = 0", fillcolor="#e58139"] ;
20 -> 21 ;
22 [label="gini = 0.0\nsamples = 1\nvalue = [0, 1, 0]\nclass = 1", fillcolor="#39e581"] ;
20 -> 22 ;
}